=== Run information ===

Scheme:       weka.classifiers.trees.J48 -C 0.25 -M 2
Relation:     cmc.txt
Instances:    1473
Attributes:   10
              Z
              Y
              X
              W
              V
              U
              T
              S
              R
              class
Test mode:    10-fold cross-validation

=== Classifier model (full training set) ===

J48 pruned tree
------------------

W <= 0: 1 (97.0/2.0)
W > 0
|   Y <= 3
|   |   Z <= 37
|   |   |   W <= 2
|   |   |   |   Z <= 30
|   |   |   |   |   U <= 0
|   |   |   |   |   |   X <= 1: 2 (3.0)
|   |   |   |   |   |   X > 1
|   |   |   |   |   |   |   V <= 0: 3 (3.0/1.0)
|   |   |   |   |   |   |   V > 0
|   |   |   |   |   |   |   |   S <= 3: 1 (19.0/6.0)
|   |   |   |   |   |   |   |   S > 3
|   |   |   |   |   |   |   |   |   X <= 3
|   |   |   |   |   |   |   |   |   |   T <= 2: 1 (3.0)
|   |   |   |   |   |   |   |   |   |   T > 2
|   |   |   |   |   |   |   |   |   |   |   Y <= 2: 1 (5.0/1.0)
|   |   |   |   |   |   |   |   |   |   |   Y > 2: 2 (2.0)
|   |   |   |   |   |   |   |   |   X > 3
|   |   |   |   |   |   |   |   |   |   Y <= 2: 1 (4.0/1.0)
|   |   |   |   |   |   |   |   |   |   Y > 2: 3 (4.0)
|   |   |   |   |   U > 0
|   |   |   |   |   |   Z <= 25
|   |   |   |   |   |   |   T <= 2
|   |   |   |   |   |   |   |   W <= 1
|   |   |   |   |   |   |   |   |   Y <= 2: 1 (10.0/3.0)
|   |   |   |   |   |   |   |   |   Y > 2: 3 (16.0/7.0)
|   |   |   |   |   |   |   |   W > 1
|   |   |   |   |   |   |   |   |   Z <= 24
|   |   |   |   |   |   |   |   |   |   S <= 1: 3 (2.0)
|   |   |   |   |   |   |   |   |   |   S > 1
|   |   |   |   |   |   |   |   |   |   |   Z <= 21: 3 (6.0/2.0)
|   |   |   |   |   |   |   |   |   |   |   Z > 21
|   |   |   |   |   |   |   |   |   |   |   |   Y <= 2: 3 (3.0/1.0)
|   |   |   |   |   |   |   |   |   |   |   |   Y > 2: 1 (6.0/1.0)
|   |   |   |   |   |   |   |   |   Z > 24: 3 (4.0)
|   |   |   |   |   |   |   T > 2
|   |   |   |   |   |   |   |   Y <= 1: 3 (5.0/1.0)
|   |   |   |   |   |   |   |   Y > 1
|   |   |   |   |   |   |   |   |   W <= 1
|   |   |   |   |   |   |   |   |   |   Y <= 2
|   |   |   |   |   |   |   |   |   |   |   X <= 2: 3 (9.0/3.0)
|   |   |   |   |   |   |   |   |   |   |   X > 2
|   |   |   |   |   |   |   |   |   |   |   |   S <= 1: 3 (3.0/1.0)
|   |   |   |   |   |   |   |   |   |   |   |   S > 1: 1 (8.0/1.0)
|   |   |   |   |   |   |   |   |   |   Y > 2
|   |   |   |   |   |   |   |   |   |   |   Z <= 20: 1 (8.0/3.0)
|   |   |   |   |   |   |   |   |   |   |   Z > 20
|   |   |   |   |   |   |   |   |   |   |   |   Z <= 24: 3 (13.0/1.0)
|   |   |   |   |   |   |   |   |   |   |   |   Z > 24: 1 (4.0/1.0)
|   |   |   |   |   |   |   |   |   W > 1: 1 (33.0/13.0)
|   |   |   |   |   |   Z > 25
|   |   |   |   |   |   |   W <= 1
|   |   |   |   |   |   |   |   S <= 2: 1 (9.0)
|   |   |   |   |   |   |   |   S > 2
|   |   |   |   |   |   |   |   |   S <= 3
|   |   |   |   |   |   |   |   |   |   T <= 2: 1 (2.0)
|   |   |   |   |   |   |   |   |   |   T > 2: 3 (3.0)
|   |   |   |   |   |   |   |   |   S > 3: 1 (4.0/1.0)
|   |   |   |   |   |   |   W > 1
|   |   |   |   |   |   |   |   V <= 0: 2 (3.0/1.0)
|   |   |   |   |   |   |   |   V > 0
|   |   |   |   |   |   |   |   |   S <= 3
|   |   |   |   |   |   |   |   |   |   X <= 3
|   |   |   |   |   |   |   |   |   |   |   Y <= 2
|   |   |   |   |   |   |   |   |   |   |   |   Z <= 26: 3 (3.0/1.0)
|   |   |   |   |   |   |   |   |   |   |   |   Z > 26: 1 (4.0/2.0)
|   |   |   |   |   |   |   |   |   |   |   Y > 2: 2 (4.0/1.0)
|   |   |   |   |   |   |   |   |   |   X > 3: 3 (12.0/5.0)
|   |   |   |   |   |   |   |   |   S > 3
|   |   |   |   |   |   |   |   |   |   T <= 2: 2 (3.0)
|   |   |   |   |   |   |   |   |   |   T > 2
|   |   |   |   |   |   |   |   |   |   |   Z <= 27: 2 (2.0)
|   |   |   |   |   |   |   |   |   |   |   Z > 27: 1 (4.0/2.0)
|   |   |   |   Z > 30: 1 (34.0/7.0)
|   |   |   W > 2
|   |   |   |   T <= 1
|   |   |   |   |   W <= 3
|   |   |   |   |   |   Y <= 2: 3 (3.0/1.0)
|   |   |   |   |   |   Y > 2: 2 (11.0/3.0)
|   |   |   |   |   W > 3
|   |   |   |   |   |   S <= 3
|   |   |   |   |   |   |   R <= 0
|   |   |   |   |   |   |   |   S <= 2: 3 (4.0/1.0)
|   |   |   |   |   |   |   |   S > 2: 2 (8.0/4.0)
|   |   |   |   |   |   |   R > 0: 2 (2.0)
|   |   |   |   |   |   S > 3
|   |   |   |   |   |   |   Z <= 30: 1 (5.0)
|   |   |   |   |   |   |   Z > 30: 3 (11.0/1.0)
|   |   |   |   T > 1
|   |   |   |   |   X <= 1
|   |   |   |   |   |   Y <= 1: 1 (8.0/2.0)
|   |   |   |   |   |   Y > 1: 2 (5.0/2.0)
|   |   |   |   |   X > 1
|   |   |   |   |   |   Z <= 32
|   |   |   |   |   |   |   S <= 2
|   |   |   |   |   |   |   |   R <= 0
|   |   |   |   |   |   |   |   |   Y <= 2
|   |   |   |   |   |   |   |   |   |   Z <= 22: 1 (3.0)
|   |   |   |   |   |   |   |   |   |   Z > 22
|   |   |   |   |   |   |   |   |   |   |   S <= 1
|   |   |   |   |   |   |   |   |   |   |   |   W <= 3: 1 (5.0)
|   |   |   |   |   |   |   |   |   |   |   |   W > 3: 3 (8.0/2.0)
|   |   |   |   |   |   |   |   |   |   |   S > 1: 3 (15.0/4.0)
|   |   |   |   |   |   |   |   |   Y > 2: 3 (23.0/5.0)
|   |   |   |   |   |   |   |   R > 0
|   |   |   |   |   |   |   |   |   W <= 3: 3 (5.0)
|   |   |   |   |   |   |   |   |   W > 3: 1 (7.0/1.0)
|   |   |   |   |   |   |   S > 2
|   |   |   |   |   |   |   |   Z <= 24
|   |   |   |   |   |   |   |   |   S <= 3: 3 (12.0/3.0)
|   |   |   |   |   |   |   |   |   S > 3: 1 (5.0)
|   |   |   |   |   |   |   |   Z > 24: 3 (98.0/28.0)
|   |   |   |   |   |   Z > 32
|   |   |   |   |   |   |   Z <= 33
|   |   |   |   |   |   |   |   V <= 0: 2 (3.0/1.0)
|   |   |   |   |   |   |   |   V > 0: 3 (19.0/6.0)
|   |   |   |   |   |   |   Z > 33
|   |   |   |   |   |   |   |   Y <= 2
|   |   |   |   |   |   |   |   |   Y <= 1
|   |   |   |   |   |   |   |   |   |   W <= 6: 3 (9.0/2.0)
|   |   |   |   |   |   |   |   |   |   W > 6: 2 (2.0)
|   |   |   |   |   |   |   |   |   Y > 1
|   |   |   |   |   |   |   |   |   |   V <= 0
|   |   |   |   |   |   |   |   |   |   |   Z <= 34: 3 (2.0)
|   |   |   |   |   |   |   |   |   |   |   Z > 34: 2 (3.0/1.0)
|   |   |   |   |   |   |   |   |   |   V > 0
|   |   |   |   |   |   |   |   |   |   |   S <= 1: 1 (2.0)
|   |   |   |   |   |   |   |   |   |   |   S > 1
|   |   |   |   |   |   |   |   |   |   |   |   R <= 0
|   |   |   |   |   |   |   |   |   |   |   |   |   X <= 3
|   |   |   |   |   |   |   |   |   |   |   |   |   |   T <= 2: 1 (8.0/3.0)
|   |   |   |   |   |   |   |   |   |   |   |   |   |   T > 2
|   |   |   |   |   |   |   |   |   |   |   |   |   |   |   Z <= 34: 1 (2.0)
|   |   |   |   |   |   |   |   |   |   |   |   |   |   |   Z > 34: 3 (12.0/4.0)
|   |   |   |   |   |   |   |   |   |   |   |   |   X > 3: 3 (8.0/2.0)
|   |   |   |   |   |   |   |   |   |   |   |   R > 0: 3 (3.0/1.0)
|   |   |   |   |   |   |   |   Y > 2
|   |   |   |   |   |   |   |   |   R <= 0
|   |   |   |   |   |   |   |   |   |   V <= 0
|   |   |   |   |   |   |   |   |   |   |   Z <= 36: 2 (3.0/1.0)
|   |   |   |   |   |   |   |   |   |   |   Z > 36: 3 (2.0)
|   |   |   |   |   |   |   |   |   |   V > 0
|   |   |   |   |   |   |   |   |   |   |   W <= 8
|   |   |   |   |   |   |   |   |   |   |   |   Z <= 36
|   |   |   |   |   |   |   |   |   |   |   |   |   U <= 0: 1 (2.0)
|   |   |   |   |   |   |   |   |   |   |   |   |   U > 0: 2 (10.0/3.0)
|   |   |   |   |   |   |   |   |   |   |   |   Z > 36: 1 (6.0/2.0)
|   |   |   |   |   |   |   |   |   |   |   W > 8: 3 (2.0)
|   |   |   |   |   |   |   |   |   R > 0: 1 (3.0)
|   |   Z > 37
|   |   |   R <= 0
|   |   |   |   U <= 0
|   |   |   |   |   V <= 0: 3 (4.0)
|   |   |   |   |   V > 0
|   |   |   |   |   |   Y <= 2: 1 (24.0/3.0)
|   |   |   |   |   |   Y > 2
|   |   |   |   |   |   |   T <= 1: 3 (5.0/1.0)
|   |   |   |   |   |   |   T > 1
|   |   |   |   |   |   |   |   Z <= 42: 1 (3.0)
|   |   |   |   |   |   |   |   Z > 42
|   |   |   |   |   |   |   |   |   T <= 2: 2 (2.0)
|   |   |   |   |   |   |   |   |   T > 2: 3 (3.0/1.0)
|   |   |   |   U > 0: 1 (149.0/49.0)
|   |   |   R > 0: 1 (46.0/3.0)
|   Y > 3
|   |   W <= 2
|   |   |   Z <= 43
|   |   |   |   X <= 3: 3 (9.0/1.0)
|   |   |   |   X > 3
|   |   |   |   |   T <= 1
|   |   |   |   |   |   Z <= 32
|   |   |   |   |   |   |   V <= 0
|   |   |   |   |   |   |   |   W <= 1
|   |   |   |   |   |   |   |   |   Z <= 27: 2 (4.0/2.0)
|   |   |   |   |   |   |   |   |   Z > 27: 1 (2.0)
|   |   |   |   |   |   |   |   W > 1
|   |   |   |   |   |   |   |   |   Z <= 30: 2 (4.0)
|   |   |   |   |   |   |   |   |   Z > 30: 3 (3.0/1.0)
|   |   |   |   |   |   |   V > 0
|   |   |   |   |   |   |   |   U <= 0
|   |   |   |   |   |   |   |   |   W <= 1
|   |   |   |   |   |   |   |   |   |   Z <= 27: 2 (6.0/3.0)
|   |   |   |   |   |   |   |   |   |   Z > 27: 1 (3.0)
|   |   |   |   |   |   |   |   |   W > 1: 2 (10.0/3.0)
|   |   |   |   |   |   |   |   U > 0
|   |   |   |   |   |   |   |   |   W <= 1
|   |   |   |   |   |   |   |   |   |   Z <= 24
|   |   |   |   |   |   |   |   |   |   |   Z <= 20: 1 (3.0/1.0)
|   |   |   |   |   |   |   |   |   |   |   Z > 20
|   |   |   |   |   |   |   |   |   |   |   |   Z <= 23: 2 (8.0/1.0)
|   |   |   |   |   |   |   |   |   |   |   |   Z > 23
|   |   |   |   |   |   |   |   |   |   |   |   |   S <= 3: 3 (2.0)
|   |   |   |   |   |   |   |   |   |   |   |   |   S > 3: 2 (3.0/1.0)
|   |   |   |   |   |   |   |   |   |   Z > 24: 1 (18.0/9.0)
|   |   |   |   |   |   |   |   |   W > 1
|   |   |   |   |   |   |   |   |   |   Z <= 25
|   |   |   |   |   |   |   |   |   |   |   Z <= 23
|   |   |   |   |   |   |   |   |   |   |   |   Z <= 21: 3 (2.0)
|   |   |   |   |   |   |   |   |   |   |   |   Z > 21: 1 (2.0)
|   |   |   |   |   |   |   |   |   |   |   Z > 23: 3 (3.0)
|   |   |   |   |   |   |   |   |   |   Z > 25
|   |   |   |   |   |   |   |   |   |   |   S <= 3: 1 (5.0/2.0)
|   |   |   |   |   |   |   |   |   |   |   S > 3
|   |   |   |   |   |   |   |   |   |   |   |   Z <= 28: 3 (2.0)
|   |   |   |   |   |   |   |   |   |   |   |   Z > 28: 1 (5.0/3.0)
|   |   |   |   |   |   Z > 32
|   |   |   |   |   |   |   W <= 1
|   |   |   |   |   |   |   |   V <= 0: 3 (2.0)
|   |   |   |   |   |   |   |   V > 0: 1 (6.0)
|   |   |   |   |   |   |   W > 1
|   |   |   |   |   |   |   |   U <= 0: 3 (11.0/5.0)
|   |   |   |   |   |   |   |   U > 0: 1 (14.0/6.0)
|   |   |   |   |   T > 1
|   |   |   |   |   |   W <= 1
|   |   |   |   |   |   |   V <= 0
|   |   |   |   |   |   |   |   U <= 0
|   |   |   |   |   |   |   |   |   Z <= 30: 3 (3.0/1.0)
|   |   |   |   |   |   |   |   |   Z > 30: 1 (2.0)
|   |   |   |   |   |   |   |   U > 0
|   |   |   |   |   |   |   |   |   T <= 2: 2 (6.0/3.0)
|   |   |   |   |   |   |   |   |   T > 2: 3 (4.0/1.0)
|   |   |   |   |   |   |   V > 0
|   |   |   |   |   |   |   |   U <= 0
|   |   |   |   |   |   |   |   |   Z <= 25
|   |   |   |   |   |   |   |   |   |   Z <= 22: 2 (2.0/1.0)
|   |   |   |   |   |   |   |   |   |   Z > 22: 1 (4.0/1.0)
|   |   |   |   |   |   |   |   |   Z > 25: 2 (5.0/2.0)
|   |   |   |   |   |   |   |   U > 0
|   |   |   |   |   |   |   |   |   Z <= 24
|   |   |   |   |   |   |   |   |   |   Z <= 22: 3 (13.0/5.0)
|   |   |   |   |   |   |   |   |   |   Z > 22
|   |   |   |   |   |   |   |   |   |   |   S <= 3
|   |   |   |   |   |   |   |   |   |   |   |   T <= 2: 1 (3.0/1.0)
|   |   |   |   |   |   |   |   |   |   |   |   T > 2: 2 (4.0/2.0)
|   |   |   |   |   |   |   |   |   |   |   S > 3: 2 (3.0)
|   |   |   |   |   |   |   |   |   Z > 24
|   |   |   |   |   |   |   |   |   |   S <= 3: 3 (3.0)
|   |   |   |   |   |   |   |   |   |   S > 3: 1 (3.0/1.0)
|   |   |   |   |   |   W > 1
|   |   |   |   |   |   |   S <= 2
|   |   |   |   |   |   |   |   U <= 0: 2 (2.0/1.0)
|   |   |   |   |   |   |   |   U > 0: 1 (3.0)
|   |   |   |   |   |   |   S > 2: 3 (42.0/16.0)
|   |   |   Z > 43: 1 (14.0/1.0)
|   |   W > 2
|   |   |   Z <= 28
|   |   |   |   T <= 2: 1 (16.0/7.0)
|   |   |   |   T > 2: 3 (13.0/2.0)
|   |   |   Z > 28
|   |   |   |   Z <= 42
|   |   |   |   |   Z <= 36
|   |   |   |   |   |   S <= 3
|   |   |   |   |   |   |   U <= 0
|   |   |   |   |   |   |   |   W <= 3: 1 (5.0/1.0)
|   |   |   |   |   |   |   |   W > 3: 2 (4.0/1.0)
|   |   |   |   |   |   |   U > 0
|   |   |   |   |   |   |   |   W <= 3: 2 (8.0/1.0)
|   |   |   |   |   |   |   |   W > 3
|   |   |   |   |   |   |   |   |   W <= 4
|   |   |   |   |   |   |   |   |   |   T <= 2
|   |   |   |   |   |   |   |   |   |   |   Z <= 32: 2 (3.0/1.0)
|   |   |   |   |   |   |   |   |   |   |   Z > 32: 3 (3.0/1.0)
|   |   |   |   |   |   |   |   |   |   T > 2: 2 (5.0/1.0)
|   |   |   |   |   |   |   |   |   W > 4: 3 (4.0/1.0)
|   |   |   |   |   |   S > 3
|   |   |   |   |   |   |   W <= 4
|   |   |   |   |   |   |   |   T <= 2
|   |   |   |   |   |   |   |   |   X <= 3: 3 (2.0)
|   |   |   |   |   |   |   |   |   X > 3
|   |   |   |   |   |   |   |   |   |   U <= 0
|   |   |   |   |   |   |   |   |   |   |   Z <= 35: 3 (11.0/2.0)
|   |   |   |   |   |   |   |   |   |   |   Z > 35: 2 (4.0/1.0)
|   |   |   |   |   |   |   |   |   |   U > 0
|   |   |   |   |   |   |   |   |   |   |   T <= 1: 3 (29.0/16.0)
|   |   |   |   |   |   |   |   |   |   |   T > 1: 2 (9.0/3.0)
|   |   |   |   |   |   |   |   T > 2
|   |   |   |   |   |   |   |   |   U <= 0: 2 (4.0/1.0)
|   |   |   |   |   |   |   |   |   U > 0: 3 (6.0/1.0)
|   |   |   |   |   |   |   W > 4
|   |   |   |   |   |   |   |   T <= 1
|   |   |   |   |   |   |   |   |   Z <= 34: 3 (2.0)
|   |   |   |   |   |   |   |   |   Z > 34: 2 (5.0/2.0)
|   |   |   |   |   |   |   |   T > 1: 2 (6.0/1.0)
|   |   |   |   |   Z > 36
|   |   |   |   |   |   X <= 3
|   |   |   |   |   |   |   T <= 2: 2 (2.0)
|   |   |   |   |   |   |   T > 2: 3 (3.0)
|   |   |   |   |   |   X > 3: 2 (81.0/26.0)
|   |   |   |   Z > 42
|   |   |   |   |   W <= 10
|   |   |   |   |   |   Z <= 47
|   |   |   |   |   |   |   S <= 3
|   |   |   |   |   |   |   |   Z <= 46
|   |   |   |   |   |   |   |   |   V <= 0: 2 (2.0/1.0)
|   |   |   |   |   |   |   |   |   V > 0: 1 (7.0/2.0)
|   |   |   |   |   |   |   |   Z > 46: 3 (3.0)
|   |   |   |   |   |   |   S > 3
|   |   |   |   |   |   |   |   T <= 1
|   |   |   |   |   |   |   |   |   V <= 0
|   |   |   |   |   |   |   |   |   |   W <= 3: 2 (2.0)
|   |   |   |   |   |   |   |   |   |   W > 3: 3 (3.0/1.0)
|   |   |   |   |   |   |   |   |   V > 0
|   |   |   |   |   |   |   |   |   |   Z <= 43
|   |   |   |   |   |   |   |   |   |   |   W <= 4: 3 (2.0)
|   |   |   |   |   |   |   |   |   |   |   W > 4: 1 (4.0/2.0)
|   |   |   |   |   |   |   |   |   |   Z > 43: 2 (23.0/7.0)
|   |   |   |   |   |   |   |   T > 1
|   |   |   |   |   |   |   |   |   Z <= 44
|   |   |   |   |   |   |   |   |   |   V <= 0: 1 (2.0)
|   |   |   |   |   |   |   |   |   |   V > 0: 3 (4.0/2.0)
|   |   |   |   |   |   |   |   |   Z > 44: 2 (2.0)
|   |   |   |   |   |   Z > 47
|   |   |   |   |   |   |   Z <= 48
|   |   |   |   |   |   |   |   U <= 0: 2 (2.0)
|   |   |   |   |   |   |   |   U > 0
|   |   |   |   |   |   |   |   |   V <= 0: 2 (5.0/1.0)
|   |   |   |   |   |   |   |   |   V > 0: 1 (2.0)
|   |   |   |   |   |   |   Z > 48: 1 (7.0/1.0)
|   |   |   |   |   W > 10: 3 (3.0)

Number of Leaves  : 	161

Size of the tree : 	321


Time taken to build model: 0.03 seconds

=== Stratified cross-validation ===
=== Summary ===

Correctly Classified Instances         784               53.2247 %
Incorrectly Classified Instances       689               46.7753 %
Kappa statistic                          0.2704
Mean absolute error                      0.344
Root mean squared error                  0.4692
Relative absolute error                 79.85   %
Root relative squared error            101.0902 %
Total Number of Instances             1473

=== Detailed Accuracy By Class ===

                 TP Rate  FP Rate  Precision  Recall   F-Measure  MCC      ROC Area  PRC Area  Class
                 0.634    0.301    0.611      0.634    0.622      0.332    0.714     0.633     1
                 0.387    0.139    0.449      0.387    0.416      0.263    0.690     0.373     2
                 0.501    0.288    0.480      0.501    0.490      0.211    0.638     0.468     3
Weighted Avg.    0.532    0.260    0.529      0.532    0.530      0.274    0.682     0.517

=== Confusion Matrix ===

   a   b   c   <-- classified as
 399  61 169 |   a = 1
  96 129 108 |   b = 2
 158  97 256 |   c = 3
